<?xml version="1.0"?>
<MethodSetup Method="MLP::MLP">
  <GeneralInfo>
    <Info name="TMVA Release" value="4.2.1 [262657]"/>
    <Info name="ROOT Release" value="6.06/06 [394758]"/>
    <Info name="Creator" value="cecilecaillol"/>
    <Info name="Date" value="Mon Apr 10 16:27:05 2017"/>
    <Info name="Host" value="Darwin macitois14.cern.ch 14.5.0 Darwin Kernel Version 14.5.0: Thu Apr 21 20:40:54 PDT 2016; root:xnu-2782.50.3~1/RELEASE_X86_64 x86_64"/>
    <Info name="Dir" value="/Users/cecilecaillol/Code/ReplaceSVFit"/>
    <Info name="Training events" value="161374"/>
    <Info name="TrainingTime" value="3.52501549e+03"/>
    <Info name="AnalysisType" value="Regression"/>
  </GeneralInfo>
  <Options>
    <Option name="NCycles" modified="Yes">20000</Option>
    <Option name="HiddenLayers" modified="Yes">N+20</Option>
    <Option name="NeuronType" modified="Yes">tanh</Option>
    <Option name="RandomSeed" modified="No">1</Option>
    <Option name="EstimatorType" modified="No">MSE</Option>
    <Option name="NeuronInputType" modified="No">sum</Option>
    <Option name="V" modified="Yes">False</Option>
    <Option name="VerbosityLevel" modified="No">Default</Option>
    <Option name="VarTransform" modified="Yes">Norm</Option>
    <Option name="H" modified="Yes">False</Option>
    <Option name="CreateMVAPdfs" modified="No">False</Option>
    <Option name="IgnoreNegWeightsInTraining" modified="No">False</Option>
    <Option name="TrainingMethod" modified="Yes">BFGS</Option>
    <Option name="LearningRate" modified="No">2.000000e-02</Option>
    <Option name="DecayRate" modified="No">1.000000e-02</Option>
    <Option name="TestRate" modified="Yes">6</Option>
    <Option name="EpochMonitoring" modified="No">False</Option>
    <Option name="Sampling" modified="Yes">3.000000e-01</Option>
    <Option name="SamplingEpoch" modified="Yes">8.000000e-01</Option>
    <Option name="SamplingImportance" modified="No">1.000000e+00</Option>
    <Option name="SamplingTraining" modified="No">True</Option>
    <Option name="SamplingTesting" modified="No">False</Option>
    <Option name="ResetStep" modified="No">50</Option>
    <Option name="Tau" modified="No">3.000000e+00</Option>
    <Option name="BPMode" modified="No">sequential</Option>
    <Option name="BatchSize" modified="No">-1</Option>
    <Option name="ConvergenceImprove" modified="Yes">1.000000e-06</Option>
    <Option name="ConvergenceTests" modified="Yes">15</Option>
    <Option name="UseRegulator" modified="Yes">False</Option>
    <Option name="UpdateLimit" modified="No">10000</Option>
    <Option name="CalculateErrors" modified="No">False</Option>
    <Option name="WeightRange" modified="No">1.000000e+00</Option>
  </Options>
  <Variables NVar="5">
    <Variable VarIndex="0" Expression="pt_1_" Label="pt_1_" Title="pt_1" Unit="units" Internal="pt_1_" Type="F" Min="2.00000057e+01" Max="3.67347961e+02"/>
    <Variable VarIndex="1" Expression="pt_2_" Label="pt_2_" Title="pt_2" Unit="units" Internal="pt_2_" Type="F" Min="2.90001488e+01" Max="5.13148438e+02"/>
    <Variable VarIndex="2" Expression="m_2_" Label="m_2_" Title="m_2" Unit="units" Internal="m_2_" Type="F" Min="1.39569998e-01" Max="6.35016870e+00"/>
    <Variable VarIndex="3" Expression="met_" Label="met_" Title="met" Unit="units" Internal="met_" Type="F" Min="7.76324421e-02" Max="6.87644531e+02"/>
    <Variable VarIndex="4" Expression="mvis_" Label="mvis_" Title="mvis" Unit="units" Internal="mvis_" Type="F" Min="1.45754852e+01" Max="5.95763245e+02"/>
  </Variables>
  <Spectators NSpec="0"/>
  <Classes NClass="1">
    <Class Name="Regression" Index="0"/>
  </Classes>
  <Targets NTrgt="1">
    <Target TargetIndex="0" Expression="fvalue_" Label="fvalue_" Title="fvalue_" Unit="" Internal="fvalue_" Type="F" Min="9.00000000e+01" Max="1.40000000e+02"/>
  </Targets>
  <Transformations NTransformations="1">
    <Transform Name="Normalize">
      <Selection>
        <Input NInputs="6">
          <Input Type="Variable" Label="pt_1_" Expression="pt_1_"/>
          <Input Type="Variable" Label="pt_2_" Expression="pt_2_"/>
          <Input Type="Variable" Label="m_2_" Expression="m_2_"/>
          <Input Type="Variable" Label="met_" Expression="met_"/>
          <Input Type="Variable" Label="mvis_" Expression="mvis_"/>
          <Input Type="Target" Label="fvalue_" Expression="fvalue_"/>
        </Input>
        <Output NOutputs="6">
          <Output Type="Variable" Label="pt_1_" Expression="pt_1_"/>
          <Output Type="Variable" Label="pt_2_" Expression="pt_2_"/>
          <Output Type="Variable" Label="m_2_" Expression="m_2_"/>
          <Output Type="Variable" Label="met_" Expression="met_"/>
          <Output Type="Variable" Label="mvis_" Expression="mvis_"/>
          <Output Type="Target" Label="fvalue_" Expression="fvalue_"/>
        </Output>
      </Selection>
      <Class ClassIndex="0">
        <Ranges>
          <Range Index="0" Min="2.0000005722045898e+01" Max="3.6734796142578125e+02"/>
          <Range Index="1" Min="2.9000148773193359e+01" Max="5.1314843750000000e+02"/>
          <Range Index="2" Min="1.3956999778747559e-01" Max="6.3501687049865723e+00"/>
          <Range Index="3" Min="7.7632442116737366e-02" Max="6.8764453125000000e+02"/>
          <Range Index="4" Min="1.4575485229492188e+01" Max="5.9576324462890625e+02"/>
          <Range Index="5" Min="9.0000000000000000e+01" Max="1.4000000000000000e+02"/>
        </Ranges>
      </Class>
    </Transform>
  </Transformations>
  <MVAPdfs/>
  <Weights>
    <Layout NLayers="3">
      <Layer Index="0" NNeurons="6">
        <Neuron NSynapses="25">
          1.4930190369181418e+00 1.7733009342228090e+00 -1.1170755022353257e-01 2.0398597147584110e+00 -1.7684060748551333e+00 -1.0841508910652073e+00 6.6901761033675830e-02 1.1934007969025520e+00 -9.8544936555731355e-01 -5.7969348216956469e+00 -3.7877617609053510e-01 -2.0811060709884477e+00 -1.2358486029810636e+00 -5.9898465049356648e+00 2.2662464385717960e+00 -1.5035546986483641e+00 6.5161486791816179e+00 -1.4029831999186542e+00 1.0301250527519950e+00 7.0369320574468675e-01 -1.4351015756719987e+00 -1.2080112467188049e+00 1.3855941042874169e+00 1.0509164193948382e+00 -1.1112131378653023e+01 
        </Neuron>
        <Neuron NSynapses="25">
          -1.6918375202137874e+00 3.0641524952758603e+00 -3.0763374850817500e+00 -1.9402977710272422e+00 4.2040494914638832e-01 8.9093846441214997e-01 1.0176118787381485e+00 -9.9371619219650631e-01 1.4260666687738011e+00 -7.8017532841019026e+00 -1.5012128501302457e+00 4.5041341344848651e-01 2.2232186090623145e+00 -8.7155303567622600e+00 -2.2121163440301403e+00 -3.1780469734781894e-02 -4.4833363970795723e+00 2.3821524533983465e+00 1.8452959138697371e+00 -3.4329871818490137e-01 -8.2701545940559607e-01 -1.6749272492834727e-01 1.2442954357934879e+00 1.3981659095014776e+00 4.3072919387030515e+00 
        </Neuron>
        <Neuron NSynapses="25">
          5.5484645804916177e-01 1.8836065020787454e+00 -1.7857979204585419e+00 1.1477074106568086e+00 -2.2469301540814368e+00 -4.9812108594468452e-01 -1.8751664775780197e-01 -1.9660732997217452e+00 2.4319483168486968e+00 -1.1948280272019132e-01 -9.5501646371348881e-01 -3.0090440150880293e+00 8.1781550721759366e-01 -2.5615021224115087e-01 2.4498277347399462e+00 -3.4850848006605328e-01 -1.3252057465232072e+00 -4.6797848238883749e-01 1.8599480931025063e+00 -8.5028547073548244e-01 -2.0599637629807863e+00 -1.4445329475841318e+00 5.9986608814748787e-01 2.3807475064859185e+00 1.4236186762602772e+00 
        </Neuron>
        <Neuron NSynapses="25">
          -4.8303390072303518e+00 -3.9751295346281201e-01 -6.6001844024643797e-01 1.1128550697950088e+00 4.7035075742583987e-01 3.9920282373478031e+00 -1.3295616286821672e+00 5.2423997299672558e-02 -7.0687918923088955e-01 1.4577533946732499e+00 -7.7941889077179805e-01 1.2660734589324446e-01 -1.8926581609608202e+00 2.4907493473988178e+00 -3.4244249080026630e+00 2.7092851359553496e+00 -9.4745756522710582e+00 5.6284860067971927e+00 -6.3155196387631840e-01 -4.5472718267684836e-01 3.0588512334095314e-01 -1.4284491279609723e+00 -6.5070025750977400e-01 -5.1476765948220682e-01 -3.3625923051625870e+00 
        </Neuron>
        <Neuron NSynapses="25">
          -1.7388074947311612e+01 6.1850396350670162e-02 -2.7625714431748896e+00 1.2889389392381996e+00 -7.5667062347828762e-01 -3.7244576869072450e+00 -2.9054641978714200e+00 -1.2562912049841584e+00 7.5541630461762765e-01 1.6219134009091974e+01 -1.2416108813374518e+00 -3.2637618660451264e+00 1.2031389165441346e+00 1.5677745117777524e+01 4.2897281883390753e-01 1.0153453899443216e+01 1.1355387084072477e+01 -1.3947353932319999e+00 2.6503011221460837e-01 -3.1281143611904161e-01 -1.6017350842201989e+00 -8.2551707977286048e-01 7.0381806265841884e-01 1.2602708683197330e+00 1.0764982171086568e+00 
        </Neuron>
        <Neuron NSynapses="25">
          -1.7534295377759431e+01 -2.0668196134333767e+00 6.5994442909820830e-02 -1.8150016902864006e+00 1.2890444690880087e+00 -3.5549148773855874e+00 -4.5492031373238051e+00 2.0647742756952372e+00 -1.3373269563150283e+00 1.9077800456146456e+00 8.0690272369967142e-01 4.9126864272643189e+00 -2.8981429437887218e+00 1.6232377965106375e+00 -4.2855673392872878e-01 7.0337857145359566e+00 3.3915167626820159e-01 -1.2449667444237018e+00 -2.1510752639563449e+00 -5.2739348243389603e+00 2.8463956611246526e+00 2.2659535987892876e+00 -1.2796171992231993e+00 -2.2642584945379265e+00 -8.1296880966891596e+00 
        </Neuron>
      </Layer>
      <Layer Index="1" NNeurons="26">
        <Neuron NSynapses="1">
          -8.7447819718447328e-01 
        </Neuron>
        <Neuron NSynapses="1">
          8.9699729934760819e-01 
        </Neuron>
        <Neuron NSynapses="1">
          1.3802541457424951e+00 
        </Neuron>
        <Neuron NSynapses="1">
          -2.3802240389514923e-02 
        </Neuron>
        <Neuron NSynapses="1">
          4.1085387456115358e-01 
        </Neuron>
        <Neuron NSynapses="1">
          -1.1054745339778520e+00 
        </Neuron>
        <Neuron NSynapses="1">
          -5.3521144882270679e+00 
        </Neuron>
        <Neuron NSynapses="1">
          4.2294337433974061e-01 
        </Neuron>
        <Neuron NSynapses="1">
          9.3213795472263897e-02 
        </Neuron>
        <Neuron NSynapses="1">
          -1.0657359862893276e+00 
        </Neuron>
        <Neuron NSynapses="1">
          1.8000093100591594e-01 
        </Neuron>
        <Neuron NSynapses="1">
          -9.1293891291366247e-01 
        </Neuron>
        <Neuron NSynapses="1">
          2.5494724718832713e+00 
        </Neuron>
        <Neuron NSynapses="1">
          9.2429611164526571e-01 
        </Neuron>
        <Neuron NSynapses="1">
          -1.1395108110469258e-01 
        </Neuron>
        <Neuron NSynapses="1">
          -1.0169993179710262e+00 
        </Neuron>
        <Neuron NSynapses="1">
          2.4787908864663954e-01 
        </Neuron>
        <Neuron NSynapses="1">
          8.9672198453669882e-01 
        </Neuron>
        <Neuron NSynapses="1">
          1.3321469436239930e+00 
        </Neuron>
        <Neuron NSynapses="1">
          -3.0320869906949555e+00 
        </Neuron>
        <Neuron NSynapses="1">
          -3.1935253958634457e+00 
        </Neuron>
        <Neuron NSynapses="1">
          4.0670523790449713e-02 
        </Neuron>
        <Neuron NSynapses="1">
          -6.8567010665400302e-03 
        </Neuron>
        <Neuron NSynapses="1">
          4.8398593881723218e-01 
        </Neuron>
        <Neuron NSynapses="1">
          1.9908297249846021e-01 
        </Neuron>
        <Neuron NSynapses="1">
          -2.3150187547308625e+00 
        </Neuron>
      </Layer>
      <Layer Index="2" NNeurons="1">
        <Neuron NSynapses="0"/>
      </Layer>
    </Layout>
  </Weights>
</MethodSetup>
